digraph Tree {
node [shape=box] ;
0 [label="nose_wide <= 0.5\ngini = 0.5\nsamples = 3502\nvalue = [1765, 1737]"] ;
1 [label="lips_thin <= 0.5\ngini = 0.21\nsamples = 1783\nvalue = [1571, 212]"] ;
0 -> 1 [labeldistance=2.5, labelangle=45, headlabel="True"] ;
2 [label="forehead_width_cm <= 14.4\ngini = 0.032\nsamples = 1399\nvalue = [1376, 23]"] ;
1 -> 2 ;
3 [label="forehead_height_cm <= 6.55\ngini = 0.023\nsamples = 1392\nvalue = [1376, 16]"] ;
2 -> 3 ;
4 [label="distance_nose_to_lip_long <= 0.5\ngini = 0.017\nsamples = 1388\nvalue = [1376, 12]"] ;
3 -> 4 ;
5 [label="forehead_width_cm <= 14.15\ngini = 0.002\nsamples = 1213\nvalue = [1212, 1]"] ;
4 -> 5 ;
6 [label="gini = 0.0\nsamples = 1122\nvalue = [1122, 0]"] ;
5 -> 6 ;
7 [label="nose_long <= 0.5\ngini = 0.022\nsamples = 91\nvalue = [90, 1]"] ;
5 -> 7 ;
8 [label="gini = 0.0\nsamples = 77\nvalue = [77, 0]"] ;
7 -> 8 ;
9 [label="gini = 0.133\nsamples = 14\nvalue = [13, 1]"] ;
7 -> 9 ;
10 [label="nose_long <= 0.5\ngini = 0.118\nsamples = 175\nvalue = [164, 11]"] ;
4 -> 10 ;
11 [label="forehead_width_cm <= 13.85\ngini = 0.027\nsamples = 144\nvalue = [142, 2]"] ;
10 -> 11 ;
12 [label="gini = 0.0\nsamples = 123\nvalue = [123, 0]"] ;
11 -> 12 ;
13 [label="gini = 0.172\nsamples = 21\nvalue = [19, 2]"] ;
11 -> 13 ;
14 [label="gini = 0.412\nsamples = 31\nvalue = [22, 9]"] ;
10 -> 14 ;
15 [label="gini = 0.0\nsamples = 4\nvalue = [0, 4]"] ;
3 -> 15 ;
16 [label="gini = 0.0\nsamples = 7\nvalue = [0, 7]"] ;
2 -> 16 ;
17 [label="distance_nose_to_lip_long <= 0.5\ngini = 0.5\nsamples = 384\nvalue = [195, 189]"] ;
1 -> 17 ;
18 [label="nose_long <= 0.5\ngini = 0.237\nsamples = 197\nvalue = [170, 27]"] ;
17 -> 18 ;
19 [label="forehead_height_cm <= 5.35\ngini = 0.014\nsamples = 140\nvalue = [139, 1]"] ;
18 -> 19 ;
20 [label="gini = 0.095\nsamples = 20\nvalue = [19, 1]"] ;
19 -> 20 ;
21 [label="gini = 0.0\nsamples = 120\nvalue = [120, 0]"] ;
19 -> 21 ;
22 [label="forehead_width_cm <= 14.4\ngini = 0.496\nsamples = 57\nvalue = [31, 26]"] ;
18 -> 22 ;
23 [label="gini = 0.457\nsamples = 48\nvalue = [31, 17]"] ;
22 -> 23 ;
24 [label="gini = 0.0\nsamples = 9\nvalue = [0, 9]"] ;
22 -> 24 ;
25 [label="nose_long <= 0.5\ngini = 0.232\nsamples = 187\nvalue = [25, 162]"] ;
17 -> 25 ;
26 [label="forehead_width_cm <= 14.25\ngini = 0.489\nsamples = 54\nvalue = [23, 31]"] ;
25 -> 26 ;
27 [label="gini = 0.498\nsamples = 43\nvalue = [23, 20]"] ;
26 -> 27 ;
28 [label="gini = 0.0\nsamples = 11\nvalue = [0, 11]"] ;
26 -> 28 ;
29 [label="forehead_height_cm <= 5.15\ngini = 0.03\nsamples = 133\nvalue = [2, 131]"] ;
25 -> 29 ;
30 [label="gini = 0.278\nsamples = 6\nvalue = [1, 5]"] ;
29 -> 30 ;
31 [label="forehead_width_cm <= 12.45\ngini = 0.016\nsamples = 127\nvalue = [1, 126]"] ;
29 -> 31 ;
32 [label="gini = 0.054\nsamples = 36\nvalue = [1, 35]"] ;
31 -> 32 ;
33 [label="gini = 0.0\nsamples = 91\nvalue = [0, 91]"] ;
31 -> 33 ;
34 [label="nose_long <= 0.5\ngini = 0.2\nsamples = 1719\nvalue = [194, 1525]"] ;
0 -> 34 [labeldistance=2.5, labelangle=-45, headlabel="False"] ;
35 [label="distance_nose_to_lip_long <= 0.5\ngini = 0.5\nsamples = 344\nvalue = [172, 172]"] ;
34 -> 35 ;
36 [label="forehead_height_cm <= 6.55\ngini = 0.226\nsamples = 177\nvalue = [154, 23]"] ;
35 -> 36 ;
37 [label="lips_thin <= 0.5\ngini = 0.162\nsamples = 169\nvalue = [154, 15]"] ;
36 -> 37 ;
38 [label="forehead_height_cm <= 5.85\ngini = 0.029\nsamples = 137\nvalue = [135, 2]"] ;
37 -> 38 ;
39 [label="gini = 0.0\nsamples = 80\nvalue = [80, 0]"] ;
38 -> 39 ;
40 [label="forehead_height_cm <= 5.95\ngini = 0.068\nsamples = 57\nvalue = [55, 2]"] ;
38 -> 40 ;
41 [label="gini = 0.18\nsamples = 10\nvalue = [9, 1]"] ;
40 -> 41 ;
42 [label="gini = 0.042\nsamples = 47\nvalue = [46, 1]"] ;
40 -> 42 ;
43 [label="gini = 0.482\nsamples = 32\nvalue = [19, 13]"] ;
37 -> 43 ;
44 [label="gini = 0.0\nsamples = 8\nvalue = [0, 8]"] ;
36 -> 44 ;
45 [label="lips_thin <= 0.5\ngini = 0.192\nsamples = 167\nvalue = [18, 149]"] ;
35 -> 45 ;
46 [label="gini = 0.484\nsamples = 39\nvalue = [16, 23]"] ;
45 -> 46 ;
47 [label="forehead_width_cm <= 11.95\ngini = 0.031\nsamples = 128\nvalue = [2, 126]"] ;
45 -> 47 ;
48 [label="gini = 0.117\nsamples = 16\nvalue = [1, 15]"] ;
47 -> 48 ;
49 [label="forehead_width_cm <= 14.25\ngini = 0.018\nsamples = 112\nvalue = [1, 111]"] ;
47 -> 49 ;
50 [label="gini = 0.0\nsamples = 73\nvalue = [0, 73]"] ;
49 -> 50 ;
51 [label="gini = 0.05\nsamples = 39\nvalue = [1, 38]"] ;
49 -> 51 ;
52 [label="distance_nose_to_lip_long <= 0.5\ngini = 0.031\nsamples = 1375\nvalue = [22, 1353]"] ;
34 -> 52 ;
53 [label="lips_thin <= 0.5\ngini = 0.198\nsamples = 179\nvalue = [20, 159]"] ;
52 -> 53 ;
54 [label="gini = 0.498\nsamples = 36\nvalue = [17, 19]"] ;
53 -> 54 ;
55 [label="forehead_width_cm <= 11.55\ngini = 0.041\nsamples = 143\nvalue = [3, 140]"] ;
53 -> 55 ;
56 [label="gini = 0.278\nsamples = 6\nvalue = [1, 5]"] ;
55 -> 56 ;
57 [label="forehead_width_cm <= 12.85\ngini = 0.029\nsamples = 137\nvalue = [2, 135]"] ;
55 -> 57 ;
58 [label="gini = 0.095\nsamples = 40\nvalue = [2, 38]"] ;
57 -> 58 ;
59 [label="gini = 0.0\nsamples = 97\nvalue = [0, 97]"] ;
57 -> 59 ;
60 [label="lips_thin <= 0.5\ngini = 0.003\nsamples = 1196\nvalue = [2, 1194]"] ;
52 -> 60 ;
61 [label="forehead_width_cm <= 13.05\ngini = 0.023\nsamples = 169\nvalue = [2, 167]"] ;
60 -> 61 ;
62 [label="forehead_width_cm <= 12.95\ngini = 0.06\nsamples = 65\nvalue = [2, 63]"] ;
61 -> 62 ;
63 [label="forehead_width_cm <= 12.65\ngini = 0.031\nsamples = 63\nvalue = [1, 62]"] ;
62 -> 63 ;
64 [label="gini = 0.0\nsamples = 51\nvalue = [0, 51]"] ;
63 -> 64 ;
65 [label="gini = 0.153\nsamples = 12\nvalue = [1, 11]"] ;
63 -> 65 ;
66 [label="gini = 0.5\nsamples = 2\nvalue = [1, 1]"] ;
62 -> 66 ;
67 [label="gini = 0.0\nsamples = 104\nvalue = [0, 104]"] ;
61 -> 67 ;
68 [label="gini = 0.0\nsamples = 1027\nvalue = [0, 1027]"] ;
60 -> 68 ;
}